<?xml version="1.0"?>
<opencv_storage>
<cascade>
  <stageType>BOOST</stageType>
  <featureType>HAAR</featureType>
  <height>64</height>
  <width>64</width>
  <stageParams>
    <boostType>GAB</boostType>
    <minHitRate>9.9500000476837158e-01</minHitRate>
    <maxFalseAlarm>5.0000000000000000e-01</maxFalseAlarm>
    <weightTrimRate>9.4999999999999996e-01</weightTrimRate>
    <maxDepth>1</maxDepth>
    <maxWeakCount>100</maxWeakCount></stageParams>
  <featureParams>
    <maxCatCount>0</maxCatCount>
    <featSize>1</featSize>
    <mode>BASIC</mode></featureParams>
  <stageNum>6</stageNum>
  <stages>
    <!-- stage 0 -->
    <_>
      <maxWeakCount>5</maxWeakCount>
      <stageThreshold>-8.3383178710937500e-01</stageThreshold>
      <weakClassifiers>
        <_>
          <internalNodes>
            0 -1 23 9.6564926207065582e-03</internalNodes>
          <leafValues>
            -6.5805166959762573e-01 7.3279350996017456e-01</leafValues></_>
        <_>
          <internalNodes>
            0 -1 16 1.5083084581419826e-03</internalNodes>
          <leafValues>
            -5.4843693971633911e-01 5.7212609052658081e-01</leafValues></_>
        <_>
          <internalNodes>
            0 -1 1 -9.6353627741336823e-03</internalNodes>
          <leafValues>
            8.9081752300262451e-01 -3.5797464847564697e-01</leafValues></_>
        <_>
          <internalNodes>
            0 -1 5 7.9925432801246643e-02</internalNodes>
          <leafValues>
            3.3956247568130493e-01 -9.5160520076751709e-01</leafValues></_>
        <_>
          <internalNodes>
            0 -1 20 2.7856134693138301e-04</internalNodes>
          <leafValues>
            -6.4600801467895508e-01 3.9106899499893188e-01</leafValues></_></weakClassifiers></_>
    <!-- stage 1 -->
    <_>
      <maxWeakCount>6</maxWeakCount>
      <stageThreshold>-1.4903832674026489e+00</stageThreshold>
      <weakClassifiers>
        <_>
          <internalNodes>
            0 -1 0 -2.0463965833187103e-02</internalNodes>
          <leafValues>
            8.3240222930908203e-01 -5.2364271879196167e-01</leafValues></_>
        <_>
          <internalNodes>
            0 -1 14 -1.8401958048343658e-02</internalNodes>
          <leafValues>
            7.6348513364791870e-01 -4.0477743744850159e-01</leafValues></_>
        <_>
          <internalNodes>
            0 -1 4 -8.0695711076259613e-03</internalNodes>
          <leafValues>
            5.9238278865814209e-01 -5.1040470600128174e-01</leafValues></_>
        <_>
          <internalNodes>
            0 -1 8 -6.0130050405859947e-03</internalNodes>
          <leafValues>
            8.2083457708358765e-01 -3.1437098979949951e-01</leafValues></_>
        <_>
          <internalNodes>
            0 -1 15 9.4763148808851838e-05</internalNodes>
          <leafValues>
            -5.3117513656616211e-01 4.6605819463729858e-01</leafValues></_>
        <_>
          <internalNodes>
            0 -1 28 3.2980972900986671e-03</internalNodes>
          <leafValues>
            -3.0879977345466614e-01 8.5373479127883911e-01</leafValues></_></weakClassifiers></_>
    <!-- stage 2 -->
    <_>
      <maxWeakCount>7</maxWeakCount>
      <stageThreshold>-9.3110555410385132e-01</stageThreshold>
      <weakClassifiers>
        <_>
          <internalNodes>
            0 -1 18 6.1442941427230835e-02</internalNodes>
          <leafValues>
            -5.1418441534042358e-01 7.5268816947937012e-01</leafValues></_>
        <_>
          <internalNodes>
            0 -1 22 1.1023513507097960e-03</internalNodes>
          <leafValues>
            -5.2068823575973511e-01 5.0209373235702515e-01</leafValues></_>
        <_>
          <internalNodes>
            0 -1 3 -3.7705004215240479e-03</internalNodes>
          <leafValues>
            7.7642560005187988e-01 -3.7254080176353455e-01</leafValues></_>
        <_>
          <internalNodes>
            0 -1 27 2.7556836357689463e-05</internalNodes>
          <leafValues>
            -5.6383901834487915e-01 3.9789971709251404e-01</leafValues></_>
        <_>
          <internalNodes>
            0 -1 25 -7.0069520734250546e-03</internalNodes>
          <leafValues>
            8.1010085344314575e-01 -3.0216705799102783e-01</leafValues></_>
        <_>
          <internalNodes>
            0 -1 6 -2.9529104940593243e-03</internalNodes>
          <leafValues>
            7.3006284236907959e-01 -2.7379745244979858e-01</leafValues></_>
        <_>
          <internalNodes>
            0 -1 26 2.1221465431153774e-03</internalNodes>
          <leafValues>
            -3.3543509244918823e-01 6.5437263250350952e-01</leafValues></_></weakClassifiers></_>
    <!-- stage 3 -->
    <_>
      <maxWeakCount>5</maxWeakCount>
      <stageThreshold>-7.6529240608215332e-01</stageThreshold>
      <weakClassifiers>
        <_>
          <internalNodes>
            0 -1 17 3.7431951612234116e-02</internalNodes>
          <leafValues>
            -5.4792040586471558e-01 7.7664977312088013e-01</leafValues></_>
        <_>
          <internalNodes>
            0 -1 21 5.7021463289856911e-03</internalNodes>
          <leafValues>
            4.0953075885772705e-01 -7.9793763160705566e-01</leafValues></_>
        <_>
          <internalNodes>
            0 -1 13 4.1773641714826226e-04</internalNodes>
          <leafValues>
            3.6262297630310059e-01 -7.8235918283462524e-01</leafValues></_>
        <_>
          <internalNodes>
            0 -1 24 -2.0770942792296410e-03</internalNodes>
          <leafValues>
            7.9945325851440430e-01 -4.3928939104080200e-01</leafValues></_>
        <_>
          <internalNodes>
            0 -1 19 7.8779383329674602e-05</internalNodes>
          <leafValues>
            -4.3551898002624512e-01 6.5723204612731934e-01</leafValues></_></weakClassifiers></_>
    <!-- stage 4 -->
    <_>
      <maxWeakCount>4</maxWeakCount>
      <stageThreshold>-9.2926698923110962e-01</stageThreshold>
      <weakClassifiers>
        <_>
          <internalNodes>
            0 -1 10 -8.7769389210734516e-05</internalNodes>
          <leafValues>
            -6.0427808761596680e-01 1.</leafValues></_>
        <_>
          <internalNodes>
            0 -1 9 -3.9526645559817553e-04</internalNodes>
          <leafValues>
            8.6960512399673462e-01 -5.4141265153884888e-01</leafValues></_>
        <_>
          <internalNodes>
            0 -1 2 -7.3608321145002265e-06</internalNodes>
          <leafValues>
            1. -4.2522168159484863e-01</leafValues></_>
        <_>
          <internalNodes>
            0 -1 7 -4.3484959751367569e-03</internalNodes>
          <leafValues>
            -6.9867724180221558e-01 6.4164543151855469e-01</leafValues></_></weakClassifiers></_>
    <!-- stage 5 -->
    <_>
      <maxWeakCount>3</maxWeakCount>
      <stageThreshold>-5.3920686244964600e-01</stageThreshold>
      <weakClassifiers>
        <_>
          <internalNodes>
            0 -1 11 7.1961125358939171e-03</internalNodes>
          <leafValues>
            1. -8.0360722541809082e-01</leafValues></_>
        <_>
          <internalNodes>
            0 -1 12 1.0054707672679797e-04</internalNodes>
          <leafValues>
            1. -7.3559963703155518e-01</leafValues></_>
        <_>
          <internalNodes>
            0 -1 29 1.2451545626390725e-04</internalNodes>
          <leafValues>
            1. -6.8267667293548584e-01</leafValues></_></weakClassifiers></_></stages>
  <features>
    <_>
      <rects>
        <_>
          0 6 14 50 -1.</_>
        <_>
          7 6 7 50 2.</_></rects>
      <tilted>0</tilted></_>
    <_>
      <rects>
        <_>
          0 17 8 45 -1.</_>
        <_>
          4 17 4 45 2.</_></rects>
      <tilted>0</tilted></_>
    <_>
      <rects>
        <_>
          0 35 11 3 -1.</_>
        <_>
          0 36 11 1 3.</_></rects>
      <tilted>0</tilted></_>
    <_>
      <rects>
        <_>
          0 36 15 25 -1.</_>
        <_>
          5 36 5 25 3.</_></rects>
      <tilted>0</tilted></_>
    <_>
      <rects>
        <_>
          0 53 63 10 -1.</_>
        <_>
          21 53 21 10 3.</_></rects>
      <tilted>0</tilted></_>
    <_>
      <rects>
        <_>
          3 13 50 44 -1.</_>
        <_>
          3 35 50 22 2.</_></rects>
      <tilted>0</tilted></_>
    <_>
      <rects>
        <_>
          5 10 18 14 -1.</_>
        <_>
          11 10 6 14 3.</_></rects>
      <tilted>0</tilted></_>
    <_>
      <rects>
        <_>
          12 16 10 40 -1.</_>
        <_>
          17 16 5 40 2.</_></rects>
      <tilted>0</tilted></_>
    <_>
      <rects>
        <_>
          14 48 24 9 -1.</_>
        <_>
          14 51 24 3 3.</_></rects>
      <tilted>0</tilted></_>
    <_>
      <rects>
        <_>
          19 17 45 10 -1.</_>
        <_>
          34 17 15 10 3.</_></rects>
      <tilted>0</tilted></_>
    <_>
      <rects>
        <_>
          20 46 9 6 -1.</_>
        <_>
          23 46 3 6 3.</_></rects>
      <tilted>0</tilted></_>
    <_>
      <rects>
        <_>
          24 0 3 39 -1.</_>
        <_>
          24 13 3 13 3.</_></rects>
      <tilted>0</tilted></_>
    <_>
      <rects>
        <_>
          24 51 6 2 -1.</_>
        <_>
          27 51 3 2 2.</_></rects>
      <tilted>0</tilted></_>
    <_>
      <rects>
        <_>
          25 61 30 1 -1.</_>
        <_>
          35 61 10 1 3.</_></rects>
      <tilted>0</tilted></_>
    <_>
      <rects>
        <_>
          34 29 30 30 -1.</_>
        <_>
          44 29 10 30 3.</_></rects>
      <tilted>0</tilted></_>
    <_>
      <rects>
        <_>
          39 60 16 4 -1.</_>
        <_>
          39 62 16 2 2.</_></rects>
      <tilted>0</tilted></_>
    <_>
      <rects>
        <_>
          41 56 21 8 -1.</_>
        <_>
          41 60 21 4 2.</_></rects>
      <tilted>0</tilted></_>
    <_>
      <rects>
        <_>
          42 2 22 47 -1.</_>
        <_>
          53 2 11 47 2.</_></rects>
      <tilted>0</tilted></_>
    <_>
      <rects>
        <_>
          42 5 22 59 -1.</_>
        <_>
          53 5 11 59 2.</_></rects>
      <tilted>0</tilted></_>
    <_>
      <rects>
        <_>
          43 61 20 2 -1.</_>
        <_>
          43 62 20 1 2.</_></rects>
      <tilted>0</tilted></_>
    <_>
      <rects>
        <_>
          44 61 20 3 -1.</_>
        <_>
          54 61 10 3 2.</_></rects>
      <tilted>0</tilted></_>
    <_>
      <rects>
        <_>
          45 15 10 36 -1.</_>
        <_>
          45 33 10 18 2.</_></rects>
      <tilted>0</tilted></_>
    <_>
      <rects>
        <_>
          45 56 18 8 -1.</_>
        <_>
          45 60 18 4 2.</_></rects>
      <tilted>0</tilted></_>
    <_>
      <rects>
        <_>
          46 32 18 32 -1.</_>
        <_>
          55 32 9 32 2.</_></rects>
      <tilted>0</tilted></_>
    <_>
      <rects>
        <_>
          48 14 15 10 -1.</_>
        <_>
          53 14 5 10 3.</_></rects>
      <tilted>0</tilted></_>
    <_>
      <rects>
        <_>
          49 23 15 35 -1.</_>
        <_>
          54 23 5 35 3.</_></rects>
      <tilted>0</tilted></_>
    <_>
      <rects>
        <_>
          52 24 10 38 -1.</_>
        <_>
          52 24 5 19 2.</_>
        <_>
          57 43 5 19 2.</_></rects>
      <tilted>0</tilted></_>
    <_>
      <rects>
        <_>
          54 60 10 3 -1.</_>
        <_>
          59 60 5 3 2.</_></rects>
      <tilted>0</tilted></_>
    <_>
      <rects>
        <_>
          58 35 6 28 -1.</_>
        <_>
          61 35 3 28 2.</_></rects>
      <tilted>0</tilted></_>
    <_>
      <rects>
        <_>
          60 4 1 6 -1.</_>
        <_>
          60 7 1 3 2.</_></rects>
      <tilted>0</tilted></_></features></cascade>
</opencv_storage>
