<?xml version="1.0"?>
<opencv_storage>
<stage2>
  <maxWeakCount>7</maxWeakCount>
  <stageThreshold>-9.3110555410385132e-01</stageThreshold>
  <weakClassifiers>
    <_>
      <internalNodes>
        0 -1 7153918 6.1442941427230835e-02</internalNodes>
      <leafValues>
        -5.1418441534042358e-01 7.5268816947937012e-01</leafValues></_>
    <_>
      <internalNodes>
        0 -1 7455520 1.1023513507097960e-03</internalNodes>
      <leafValues>
        -5.2068823575973511e-01 5.0209373235702515e-01</leafValues></_>
    <_>
      <internalNodes>
        0 -1 203612 -3.7705004215240479e-03</internalNodes>
      <leafValues>
        7.7642560005187988e-01 -3.7254080176353455e-01</leafValues></_>
    <_>
      <internalNodes>
        0 -1 7940471 2.7556836357689463e-05</internalNodes>
      <leafValues>
        -5.6383901834487915e-01 3.9789971709251404e-01</leafValues></_>
    <_>
      <internalNodes>
        0 -1 7688355 -7.0069520734250546e-03</internalNodes>
      <leafValues>
        8.1010085344314575e-01 -3.0216705799102783e-01</leafValues></_>
    <_>
      <internalNodes>
        0 -1 1282928 -2.9529104940593243e-03</internalNodes>
      <leafValues>
        7.3006284236907959e-01 -2.7379745244979858e-01</leafValues></_>
    <_>
      <internalNodes>
        0 -1 7843521 2.1221465431153774e-03</internalNodes>
      <leafValues>
        -3.3543509244918823e-01 6.5437263250350952e-01</leafValues></_></weakClassifiers></stage2>
</opencv_storage>
